{"learner":{"attributes":{"scikit_learn":"{\"_estimator_type\": \"classifier\"}"},"feature_names":["rsi_at_entry","vol_ratio_at_entry","dist_from_ema20","atr_pct_at_entry","macd_at_entry","macd_signal_at_entry","macd_hist_at_entry","stoch_k_at_entry","stoch_d_at_entry"],"feature_types":["float","float","float","float","float","float","float","float","float"],"gradient_booster":{"model":{"cats":{"enc":[],"feature_segments":[],"sorted_idx":[]},"gbtree_model_param":{"num_parallel_tree":"1","num_trees":"100"},"iteration_indptr":[0,1,2,3,4,5,6,7,8,9,10,11,12,13,14,15,16,17,18,19,20,21,22,23,24,25,26,27,28,29,30,31,32,33,34,35,36,37,38,39,40,41,42,43,44,45,46,47,48,49,50,51,52,53,54,55,56,57,58,59,60,61,62,63,64,65,66,67,68,69,70,71,72,73,74,75,76,77,78,79,80,81,82,83,84,85,86,87,88,89,90,91,92,93,94,95,96,97,98,99,100],"tree_info":[0,0,0,0,0,0,0,0,0,0,0,0,0,0,0,0,0,0,0,0,0,0,0,0,0,0,0,0,0,0,0,0,0,0,0,0,0,0,0,0,0,0,0,0,0,0,0,0,0,0,0,0,0,0,0,0,0,0,0,0,0,0,0,0,0,0,0,0,0,0,0,0,0,0,0,0,0,0,0,0,0,0,0,0,0,0,0,0,0,0,0,0,0,0,0,0,0,0,0,0],"trees":[{"base_weights":[-6.85275E-8,-4.2301303E-1,8.065948E-2,-1.2083657E-1,1.256544E-1,8.065948E-2,-7.621999E-2],"categories":[],"categories_nodes":[],"categories_segments":[],"categories_sizes":[],"default_left":[0,0,0,0,0,0,0],"id":0,"left_children":[1,3,-1,-1,5,-1,-1],"loss_changes":[2.715384E0,2.4013305E0,0E0,0E0,3.0204945E0,0E0,0E0],"parents":[2147483647,0,0,1,1,4,4],"right_children":[2,4,-1,-1,6,-1,-1],"split_conditions":[8.658844E1,7.96537E1,8.065948E-2,-1.2083657E-1,3.933512E-1,8.065948E-2,-7.621999E-2],"split_indices":[8,7,0,0,4,0,0],"split_type":[0,0,0,0,0,0,0],"sum_hessian":[5.958333E0,4.220486E0,1.7378472E0,1.2413194E0,2.9791665E0,1.7378472E0,1.2413194E0],"tree_param":{"num_deleted":"0","num_feature":"9","num_nodes":"7","size_leaf_vector":"1"}},{"base_weights":[-4.8703435E-3,-4.0276778E-1,7.595962E-2,-1.1371203E-1,1.14645354E-1,7.595962E-2,-7.17917E-2],"categories":[],"categories_nodes":[],"categories_segments":[],"categories_sizes":[],"default_left":[0,0,0,0,0,0,0],"id":1,"left_children":[1,3,-1,-1,5,-1,-1],"loss_changes":[2.4180431E0,2.1138453E0,0E0,0E0,2.6775224E0,0E0,0E0],"parents":[2147483647,0,0,1,1,4,4],"right_children":[2,4,-1,-1,6,-1,-1],"split_conditions":[8.658844E1,7.96537E1,7.595962E-2,-1.1371203E-1,3.933512E-1,7.595962E-2,-7.17917E-2],"split_indices":[8,7,0,0,4,0,0],"split_type":[0,0,0,0,0,0,0],"sum_hessian":[5.94361E0,4.2201843E0,1.7234262E0,1.2493327E0,2.9708514E0,1.7234262E0,1.2474252E0],"tree_param":{"num_deleted":"0","num_feature":"9","num_nodes":"7","size_leaf_vector":"1"}},{"base_weights":[-9.052131E-3,-3.845551E-1,7.166353E-2,-1.0743077E-1,1.0484949E-1,7.166353E-2,-6.772797E-2],"categories":[],"categories_nodes":[],"categories_segments":[],"categories_sizes":[],"default_left":[0,0,0,0,0,0,0],"id":2,"left_children":[1,3,-1,-1,5,-1,-1],"loss_changes":[2.158102E0,1.8691489E0,0E0,0E0,2.3777359E0,0E0,0E0],"parents":[2147483647,0,0,1,1,4,4],"right_children":[2,4,-1,-1,6,-1,-1],"split_conditions":[8.658844E1,7.96537E1,7.166353E-2,-1.0743077E-1,3.933512E-1,7.166353E-2,-6.772797E-2],"split_indices":[8,7,0,0,4,0,0],"split_type":[0,0,0,0,0,0,0],"sum_hessian":[5.9083724E0,4.2034183E0,1.7049541E0,1.2485774E0,2.954841E0,1.7049541E0,1.2498866E0],"tree_param":{"num_deleted":"0","num_feature":"9","num_nodes":"7","size_leaf_vector":"1"}},{"base_weights":[-1.268721E-2,-3.6806133E-1,6.77147E-2,-1.01848386E-1,9.60878E-2,6.77147E-2,-6.3983515E-2],"categories":[],"categories_nodes":[],"categories_segments":[],"categories_sizes":[],"default_left":[0,0,0,0,0,0,0],"id":3,"left_children":[1,3,-1,-1,5,-1,-1],"loss_changes":[1.9300913E0,1.6595905E0,0E0,0E0,2.1149108E0,0E0,0E0],"parents":[2147483647,0,0,1,1,4,4],"right_children":[2,4,-1,-1,6,-1,-1],"split_conditions":[8.658844E1,7.96537E1,6.77147E-2,-1.01848386E-1,3.933512E-1,6.77147E-2,-6.3983515E-2],"split_indices":[8,7,0,0,4,0,0],"split_type":[0,0,0,0,0,0,0],"sum_hessian":[5.856476E0,4.173111E0,1.6833651E0,1.2404864E0,2.9326246E0,1.6833651E0,1.2492596E0],"tree_param":{"num_deleted":"0","num_feature":"9","num_nodes":"7","size_leaf_vector":"1"}},{"base_weights":[-1.5883124E-2,-7.737999E-2,2.8550303E-1,1.01669125E-1,-2.8192535E-1,1.3057465E-2,-6.549757E-2],"categories":[],"categories_nodes":[],"categories_segments":[],"categories_sizes":[],"default_left":[0,0,0,0,0,0,0],"id":4,"left_children":[1,-1,3,-1,5,-1,-1],"loss_changes":[1.7722282E0,0E0,2.6057224E0,0E0,6.90302E-1,0E0,0E0],"parents":[2147483647,0,0,2,2,4,4],"right_children":[2,-1,4,-1,6,-1,-1],"split_conditions":[-8.483465E-3,-7.737999E-2,2.7814397E-1,1.01669125E-1,2.6064732E0,1.3057465E-2,-6.549757E-2],"split_indices":[4,0,4,0,1,0,0],"split_type":[0,0,0,0,0,0,0],"sum_hessian":[5.791297E0,1.2017366E0,4.5895605E0,1.659446E0,2.9301145E0,1.7001531E0,1.2299613E0],"tree_param":{"num_deleted":"0","num_feature":"9","num_nodes":"7","size_leaf_vector":"1"}},{"base_weights":[-1.8216467E-2,-3.4938726E-1,6.27205E-2,-9.504436E-2,8.378885E-2,6.2156737E-2,-5.871851E-2],"categories":[],"categories_nodes":[],"categories_segments":[],"categories_sizes":[],"default_left":[0,0,0,0,0,0,0],"id":5,"left_children":[1,3,-1,-1,5,-1,-1],"loss_changes":[1.6622349E0,1.4085945E0,0E0,0E0,1.7669564E0,0E0,0E0],"parents":[2147483647,0,0,1,1,4,4],"right_children":[2,4,-1,-1,6,-1,-1],"split_conditions":[8.658844E1,7.96537E1,6.27205E-2,-9.504436E-2,3.933512E-1,6.2156737E-2,-5.871851E-2],"split_indices":[8,7,0,0,4,0,0],"split_type":[0,0,0,0,0,0,0],"sum_hessian":[5.751499E0,4.1042466E0,1.6472527E0,1.2188692E0,2.8853774E0,1.642536E0,1.2428412E0],"tree_param":{"num_deleted":"0","num_feature":"9","num_nodes":"7","size_leaf_vector":"1"}},{"base_weights":[-2.0845572E-2,-3.2606786E-1,6.563489E-2,5.9153806E-2,-8.0729795E-1,-2.1715382E-2,-9.870399E-2],"categories":[],"categories_nodes":[],"categories_segments":[],"categories_sizes":[],"default_left":[0,0,0,0,0,0,0],"id":6,"left_children":[1,3,-1,-1,5,-1,-1],"loss_changes":[1.5931394E0,2.8035214E0,0E0,0E0,1.9703269E-1,0E0,0E0],"parents":[2147483647,0,0,1,1,4,4],"right_children":[2,4,-1,-1,6,-1,-1],"split_conditions":[7.12196E1,7.065211E-2,6.563489E-2,5.9153806E-2,7.9999855E1,-2.1715382E-2,-9.870399E-2],"split_indices":[0,6,0,0,7,0,0],"split_type":[0,0,0,0,0,0,0],"sum_hessian":[5.672276E0,4.267395E0,1.4048808E0,1.38922E0,2.8781753E0,1.1874803E0,1.6906948E0],"tree_param":{"num_deleted":"0","num_feature":"9","num_nodes":"7","size_leaf_vector":"1"}},{"base_weights":[-1.8013844E-2,-7.2150506E-2,2.6902783E-1,9.309642E-2,-2.4061477E-1,3.138218E-2,-6.92428E-2],"categories":[],"categories_nodes":[],"categories_segments":[],"categories_sizes":[],"default_left":[0,0,0,0,0,0,0],"id":7,"left_children":[1,-1,3,-1,5,-1,-1],"loss_changes":[1.5357901E0,0E0,2.0616415E0,0E0,1.1873163E0,0E0,0E0],"parents":[2147483647,0,0,2,2,4,4],"right_children":[2,-1,4,-1,6,-1,-1],"split_conditions":[-8.483465E-3,-7.2150506E-2,9.974443E-2,9.309642E-2,2.333223E0,3.138218E-2,-6.92428E-2],"split_indices":[4,0,6,0,1,0,0],"split_type":[0,0,0,0,0,0,0],"sum_hessian":[5.644266E0,1.1970084E0,4.447258E0,1.5749604E0,2.8722975E0,1.4268161E0,1.4454813E0],"tree_param":{"num_deleted":"0","num_feature":"9","num_nodes":"7","size_leaf_vector":"1"}},{"base_weights":[-1.8639699E-2,-3.0476645E-1,6.163646E-2,5.474766E-2,-7.433057E-1,-9.102015E-2,-1.9521793E-2],"categories":[],"categories_nodes":[],"categories_segments":[],"categories_sizes":[],"default_left":[0,0,0,0,0,0,0],"id":8,"left_children":[1,3,-1,-1,5,-1,-1],"loss_changes":[1.3837265E0,2.3528461E0,0E0,0E0,1.755631E-1,0E0,0E0],"parents":[2147483647,0,0,1,1,4,4],"right_children":[2,4,-1,-1,6,-1,-1],"split_conditions":[7.12196E1,7.065211E-2,6.163646E-2,5.474766E-2,1.9124407E0,-9.102015E-2,-1.9521793E-2],"split_indices":[0,6,0,0,3,0,0],"split_type":[0,0,0,0,0,0,0],"sum_hessian":[5.5819144E0,4.206543E0,1.3753713E0,1.3447633E0,2.8617797E0,1.687301E0,1.1744785E0],"tree_param":{"num_deleted":"0","num_feature":"9","num_nodes":"7","size_leaf_vector":"1"}},{"base_weights":[-1.5875155E-2,-6.698712E-2,2.568329E-1,8.7852225E-2,-2.1615072E-1,3.071419E-2,-6.485203E-2],"categories":[],"categories_nodes":[],"categories_segments":[],"categories_sizes":[],"default_left":[0,0,0,0,0,0,0],"id":9,"left_children":[1,-1,3,-1,5,-1,-1],"loss_changes":[1.3388715E0,0E0,1.7600939E0,0E0,1.0669264E0,0E0,0E0],"parents":[2147483647,0,0,2,2,4,4],"right_children":[2,-1,4,-1,6,-1,-1],"split_conditions":[-8.483465E-3,-6.698712E-2,9.974443E-2,8.7852225E-2,2.333223E0,3.071419E-2,-6.485203E-2],"split_indices":[4,0,6,0,1,0,0],"split_type":[0,0,0,0,0,0,0],"sum_hessian":[5.5423408E0,1.2024095E0,4.3399315E0,1.5047214E0,2.83521E0,1.4137697E0,1.4214402E0],"tree_param":{"num_deleted":"0","num_feature":"9","num_nodes":"7","size_leaf_vector":"1"}},{"base_weights":[-1.6224578E-2,-3.0520633E-1,5.4868843E-2,-8.695849E-2,1.03371546E-1,5.5975836E-2,-4.7583774E-2],"categories":[],"categories_nodes":[],"categories_segments":[],"categories_sizes":[],"default_left":[0,0,0,0,0,0,0],"id":10,"left_children":[1,3,-1,-1,5,-1,-1],"loss_changes":[1.2239957E0,1.2253724E0,0E0,0E0,1.2576711E0,0E0,0E0],"parents":[2147483647,0,0,1,1,4,4],"right_children":[2,4,-1,-1,6,-1,-1],"split_conditions":[8.658844E1,7.96537E1,5.4868843E-2,-8.695849E-2,3.933512E-1,5.5975836E-2,-4.7583774E-2],"split_indices":[8,7,0,0,4,0,0],"split_type":[0,0,0,0,0,0,0],"sum_hessian":[5.4718866E0,3.9241912E0,1.5476952E0,1.174082E0,2.7501092E0,1.5569196E0,1.1931897E0],"tree_param":{"num_deleted":"0","num_feature":"9","num_nodes":"7","size_leaf_vector":"1"}},{"base_weights":[-1.8510528E-2,-6.390976E-2,2.4586257E-1,8.2321696E-2,-1.8977712E-1,-5.187958E-2,1.5387664E-2],"categories":[],"categories_nodes":[],"categories_segments":[],"categories_sizes":[],"default_left":[0,0,0,0,0,0,0],"id":11,"left_children":[1,-1,3,-1,5,-1,-1],"loss_changes":[1.2040932E0,0E0,1.463407E0,0E0,5.0663745E-1,0E0,0E0],"parents":[2147483647,0,0,2,2,4,4],"right_children":[2,-1,4,-1,6,-1,-1],"split_conditions":[-8.483465E-3,-6.390976E-2,2.7814397E-1,8.2321696E-2,2.0841569E-1,-5.187958E-2,1.5387664E-2],"split_indices":[4,0,4,0,5,0,0],"split_type":[0,0,0,0,0,0,0],"sum_hessian":[5.3813324E0,1.1841834E0,4.1971493E0,1.4223849E0,2.7747643E0,1.1571995E0,1.6175647E0],"tree_param":{"num_deleted":"0","num_feature":"9","num_nodes":"7","size_leaf_vector":"1"}},{"base_weights":[-1.9418122E-2,-2.8362015E-1,5.674405E-2,4.9417134E-2,-6.7086565E-1,-8.39104E-2,-1.4727204E-2],"categories":[],"categories_nodes":[],"categories_segments":[],"categories_sizes":[],"default_left":[0,0,0,0,0,0,0],"id":12,"left_children":[1,3,-1,-1,5,-1,-1],"loss_changes":[1.1402532E0,1.8441677E0,0E0,0E0,2.0913315E-1,0E0,0E0],"parents":[2147483647,0,0,1,1,4,4],"right_children":[2,4,-1,-1,6,-1,-1],"split_conditions":[7.12196E1,7.065211E-2,5.674405E-2,4.9417134E-2,1.9124407E0,-8.39104E-2,-1.4727204E-2],"split_indices":[0,6,0,0,3,0,0],"split_type":[0,0,0,0,0,0,0],"sum_hessian":[5.316159E0,4.022125E0,1.294034E0,1.2451313E0,2.7769935E0,1.645639E0,1.1313546E0],"tree_param":{"num_deleted":"0","num_feature":"9","num_nodes":"7","size_leaf_vector":"1"}},{"base_weights":[-1.6356736E-2,-5.9513804E-2,2.3509656E-1,7.8555815E-2,-1.7483772E-1,3.0445445E-2,-5.822758E-2],"categories":[],"categories_nodes":[],"categories_segments":[],"categories_sizes":[],"default_left":[0,0,0,0,0,0,0],"id":13,"left_children":[1,-1,3,-1,5,-1,-1],"loss_changes":[1.0521505E0,0E0,1.2851303E0,0E0,9.0632975E-1,0E0,0E0],"parents":[2147483647,0,0,2,2,4,4],"right_children":[2,-1,4,-1,6,-1,-1],"split_conditions":[-8.483465E-3,-5.9513804E-2,9.974443E-2,7.8555815E-2,2.333223E0,3.0445445E-2,-5.822758E-2],"split_indices":[4,0,6,0,1,0,0],"split_type":[0,0,0,0,0,0,0],"sum_hessian":[5.2680902E0,1.1815864E0,4.0865035E0,1.3531651E0,2.7333384E0,1.3720632E0,1.3612753E0],"tree_param":{"num_deleted":"0","num_feature":"9","num_nodes":"7","size_leaf_vector":"1"}},{"base_weights":[-1.6095927E-2,-2.6636913E-1,5.370688E-2,4.631139E-2,-6.2432796E-1,-7.855952E-2,-1.2884564E-2],"categories":[],"categories_nodes":[],"categories_segments":[],"categories_sizes":[],"default_left":[0,0,0,0,0,0,0],"id":14,"left_children":[1,3,-1,-1,5,-1,-1],"loss_changes":[1.0001625E0,1.5767384E0,0E0,0E0,1.9712126E-1,0E0,0E0],"parents":[2147483647,0,0,1,1,4,4],"right_children":[2,4,-1,-1,6,-1,-1],"split_conditions":[7.12196E1,7.065211E-2,5.370688E-2,4.631139E-2,1.9124407E0,-7.855952E-2,-1.2884564E-2],"split_indices":[0,6,0,0,3,0,0],"split_type":[0,0,0,0,0,0,0],"sum_hessian":[5.1910553E0,3.9309871E0,1.2600682E0,1.1972836E0,2.7337034E0,1.6206921E0,1.1130114E0],"tree_param":{"num_deleted":"0","num_feature":"9","num_nodes":"7","size_leaf_vector":"1"}},{"base_weights":[-1.3189399E-2,-5.764088E-2,2.1920219E-1,7.9910226E-2,-2.0437095E-1,-6.1447926E-2,2.954549E-2],"categories":[],"categories_nodes":[],"categories_segments":[],"categories_sizes":[],"default_left":[0,0,0,0,0,0,0],"id":15,"left_children":[1,-1,3,-1,5,-1,-1],"loss_changes":[9.2992145E-1,0E0,1.4088105E0,0E0,9.454421E-1,0E0,0E0],"parents":[2147483647,0,0,2,2,4,4],"right_children":[2,-1,4,-1,6,-1,-1],"split_conditions":[6.1824314E1,-5.764088E-2,9.974443E-2,7.9910226E-2,2.049322E-1,-6.1447926E-2,2.954549E-2],"split_indices":[0,0,6,0,6,0,0],"split_type":[0,0,0,0,0,0,0],"sum_hessian":[5.1394067E0,1.0687857E0,4.070621E0,1.3440086E0,2.7266126E0,1.3717234E0,1.3548892E0],"tree_param":{"num_deleted":"0","num_feature":"9","num_nodes":"7","size_leaf_vector":"1"}},{"base_weights":[-1.3404395E-2,-5.4303836E-2,2.224753E-1,7.300272E-2,-1.498871E-1,-4.0972408E-2,2.1929076E-2],"categories":[],"categories_nodes":[],"categories_segments":[],"categories_sizes":[],"default_left":[0,0,0,0,0,0,0],"id":16,"left_children":[1,-1,3,-1,5,-1,-1],"loss_changes":[8.7810344E-1,0E0,1.0361099E0,0E0,4.4074342E-1,0E0,0E0],"parents":[2147483647,0,0,2,2,4,4],"right_children":[2,-1,4,-1,6,-1,-1],"split_conditions":[-8.483465E-3,-5.4303836E-2,2.7814397E-1,7.300272E-2,2.044252E0,-4.0972408E-2,2.1929076E-2],"split_indices":[4,0,4,0,3,0,0],"split_type":[0,0,0,0,0,0,0],"sum_hessian":[5.0617256E0,1.1584375E0,3.9032884E0,1.2453182E0,2.6579702E0,1.4955411E0,1.1624291E0],"tree_param":{"num_deleted":"0","num_feature":"9","num_nodes":"7","size_leaf_vector":"1"}},{"base_weights":[-1.2029942E-2,-2.6016653E-1,4.7368746E-2,-7.6461665E-2,1.10488996E-1,5.0956514E-2,-3.9822746E-2],"categories":[],"categories_nodes":[],"categories_segments":[],"categories_sizes":[],"default_left":[0,0,0,0,0,0,0],"id":17,"left_children":[1,3,-1,-1,5,-1,-1],"loss_changes":[8.4588856E-1,9.471938E-1,0E0,0E0,9.2027307E-1,0E0,0E0],"parents":[2147483647,0,0,1,1,4,4],"right_children":[2,4,-1,-1,6,-1,-1],"split_conditions":[8.658844E1,7.96537E1,4.7368746E-2,-7.6461665E-2,3.933512E-1,5.0956514E-2,-3.9822746E-2],"split_indices":[8,7,0,0,4,0,0],"split_type":[0,0,0,0,0,0,0],"sum_hessian":[4.995897E0,3.6139953E0,1.3819016E0,1.0805396E0,2.5334558E0,1.4187844E0,1.1146715E0],"tree_param":{"num_deleted":"0","num_feature":"9","num_nodes":"7","size_leaf_vector":"1"}},{"base_weights":[-1.4069949E-2,-2.4387792E-1,4.903538E-2,4.231497E-2,-5.654346E-1,-8.086267E-3,-7.342319E-2],"categories":[],"categories_nodes":[],"categories_segments":[],"categories_sizes":[],"default_left":[0,0,0,0,0,0,0],"id":18,"left_children":[1,3,-1,-1,5,-1,-1],"loss_changes":[8.0427104E-1,1.2528573E0,0E0,0E0,2.3644435E-1,0E0,0E0],"parents":[2147483647,0,0,1,1,4,4],"right_children":[2,4,-1,-1,6,-1,-1],"split_conditions":[7.12196E1,7.065211E-2,4.903538E-2,4.231497E-2,7.9999855E1,-8.086267E-3,-7.342319E-2],"split_indices":[0,6,0,0,7,0,0],"split_type":[0,0,0,0,0,0,0],"sum_hessian":[4.9064965E0,3.7256618E0,1.1808345E0,1.1090794E0,2.6165826E0,1.0581032E0,1.5584793E0],"tree_param":{"num_deleted":"0","num_feature":"9","num_nodes":"7","size_leaf_vector":"1"}},{"base_weights":[-1.1107267E-2,-5.1353004E-2,2.1823166E-1,-1.23690836E-1,7.077854E-2,-4.8602995E-2,2.7304608E-2],"categories":[],"categories_nodes":[],"categories_segments":[],"categories_sizes":[],"default_left":[0,0,0,0,0,0,0],"id":19,"left_children":[1,-1,3,5,-1,-1,-1],"loss_changes":[7.865696E-1,0E0,8.777806E-1,6.5465003E-1,0E0,0E0,0E0],"parents":[2147483647,0,0,2,2,3,3],"right_children":[2,-1,4,6,-1,-1,-1],"split_conditions":[-8.483465E-3,-5.1353004E-2,8.658844E1,8.1355995E1,7.077854E-2,-4.8602995E-2,2.7304608E-2],"split_indices":[4,0,8,7,0,0,0],"split_type":[0,0,0,0,0,0,0],"sum_hessian":[4.8537683E0,1.1328373E0,3.7209313E0,2.6308131E0,1.090118E0,1.2573808E0,1.3734324E0],"tree_param":{"num_deleted":"0","num_feature":"9","num_nodes":"7","size_leaf_vector":"1"}},{"base_weights":[-1.0311507E-2,-4.8845135E-2,2.098802E-1,6.724014E-2,-1.272478E-1,2.9584704E-2,-5.0326597E-2],"categories":[],"categories_nodes":[],"categories_segments":[],"categories_sizes":[],"default_left":[0,0,0,0,0,0,0],"id":20,"left_children":[1,-1,3,-1,5,-1,-1],"loss_changes":[7.112726E-1,0E0,8.1194264E-1,0E0,7.113287E-1,0E0,0E0],"parents":[2147483647,0,0,2,2,4,4],"right_children":[2,-1,4,-1,6,-1,-1],"split_conditions":[-8.483465E-3,-4.8845135E-2,9.974443E-2,6.724014E-2,2.333223E0,2.9584704E-2,-5.0326597E-2],"split_indices":[4,0,6,0,1,0,0],"split_type":[0,0,0,0,0,0,0],"sum_hessian":[4.7821264E0,1.1237141E0,3.6584125E0,1.1230922E0,2.5353203E0,1.2933061E0,1.2420142E0],"tree_param":{"num_deleted":"0","num_feature":"9","num_nodes":"7","size_leaf_vector":"1"}},{"base_weights":[-9.664608E-3,-2.2280358E-1,4.5473557E-2,3.997156E-2,-5.2023715E-1,-6.524057E-3,-6.8136446E-2],"categories":[],"categories_nodes":[],"categories_segments":[],"categories_sizes":[],"default_left":[0,0,0,0,0,0,0],"id":21,"left_children":[1,3,-1,-1,5,-1,-1],"loss_changes":[6.662495E-1,1.0565569E0,0E0,0E0,2.147696E-1,0E0,0E0],"parents":[2147483647,0,0,1,1,4,4],"right_children":[2,4,-1,-1,6,-1,-1],"split_conditions":[7.12196E1,7.065211E-2,4.5473557E-2,3.997156E-2,7.9999855E1,-6.524057E-3,-6.8136446E-2],"split_indices":[0,6,0,0,7,0,0],"split_type":[0,0,0,0,0,0,0],"sum_hessian":[4.7074423E0,3.5831637E0,1.1242785E0,1.047305E0,2.5358586E0,1.0305785E0,1.5052801E0],"tree_param":{"num_deleted":"0","num_feature":"9","num_nodes":"7","size_leaf_vector":"1"}},{"base_weights":[-6.902977E-3,-4.584753E-2,2.0399503E-1,-1.16642565E-1,6.655219E-2,2.7128864E-2,-4.5169875E-2],"categories":[],"categories_nodes":[],"categories_segments":[],"categories_sizes":[],"default_left":[0,0,0,0,0,0,0],"id":22,"left_children":[1,-1,3,5,-1,-1,-1],"loss_changes":[6.320908E-1,0E0,7.504825E-1,5.8185923E-1,0E0,0E0,0E0],"parents":[2147483647,0,0,2,2,3,3],"right_children":[2,-1,4,6,-1,-1,-1],"split_conditions":[-8.483465E-3,-4.584753E-2,8.658844E1,2.4129348E0,6.655219E-2,2.7128864E-2,-4.5169875E-2],"split_indices":[4,0,8,1,0,0,0],"split_type":[0,0,0,0,0,0,0],"sum_hessian":[4.6550646E0,1.1082253E0,3.546839E0,2.533797E0,1.0130421E0,1.2624452E0,1.2713518E0],"tree_param":{"num_deleted":"0","num_feature":"9","num_nodes":"7","size_leaf_vector":"1"}},{"base_weights":[-5.6721265E-3,-4.3662038E-2,1.966568E-1,6.388125E-2,-1.22772105E-1,2.6139015E-2,-4.663627E-2],"categories":[],"categories_nodes":[],"categories_segments":[],"categories_sizes":[],"default_left":[0,0,0,0,0,0,0],"id":23,"left_children":[1,-1,3,-1,5,-1,-1],"loss_changes":[5.7365733E-1,0E0,7.134976E-1,0E0,5.771945E-1,0E0,0E0],"parents":[2147483647,0,0,2,2,4,4],"right_children":[2,-1,4,-1,6,-1,-1],"split_conditions":[-8.483465E-3,-4.3662038E-2,9.974443E-2,6.388125E-2,2.333223E0,2.6139015E-2,-4.663627E-2],"split_indices":[4,0,6,0,1,0,0],"split_type":[0,0,0,0,0,0,0],"sum_hessian":[4.594386E0,1.0979168E0,3.4964693E0,1.0471454E0,2.449324E0,1.269339E0,1.179985E0],"tree_param":{"num_deleted":"0","num_feature":"9","num_nodes":"7","size_leaf_vector":"1"}},{"base_weights":[-5.0913864E-3,-2.0552556E-1,4.2622067E-2,2.5085036E-2,-4.4485313E-1,-5.524527E-2,-1.0747849E-2],"categories":[],"categories_nodes":[],"categories_segments":[],"categories_sizes":[],"default_left":[0,0,0,0,0,0,0],"id":24,"left_children":[1,3,-1,-1,5,-1,-1],"loss_changes":[5.650112E-1,5.9708893E-1,0E0,0E0,5.956292E-2,0E0,0E0],"parents":[2147483647,0,0,1,1,4,4],"right_children":[2,4,-1,-1,6,-1,-1],"split_conditions":[7.12196E1,8.610463E-2,4.2622067E-2,2.5085036E-2,1.9006194E-1,-5.524527E-2,-1.0747849E-2],"split_indices":[0,6,0,0,6,0,0],"split_type":[0,0,0,0,0,0,0],"sum_hessian":[4.5224266E0,3.4449966E0,1.0774301E0,1.1685436E0,2.276453E0,1.2426326E0,1.0338204E0],"tree_param":{"num_deleted":"0","num_feature":"9","num_nodes":"7","size_leaf_vector":"1"}},{"base_weights":[-4.321783E-3,-3.9328177E-2,2.1726337E-1,4.265789E-2,-1.5660498E-2],"categories":[],"categories_nodes":[],"categories_segments":[],"categories_sizes":[],"default_left":[0,0,0,0,0],"id":25,"left_children":[1,-1,3,-1,-1],"loss_changes":[5.581709E-1,0E0,3.9065844E-1,0E0,0E0],"parents":[2147483647,0,0,2,2],"right_children":[2,-1,4,-1,-1],"split_conditions":[7.96537E1,-3.9328177E-2,3.933512E-1,4.265789E-2,-1.5660498E-2],"split_indices":[7,0,4,0,0],"split_type":[0,0,0,0,0],"sum_hessian":[4.4848304E0,1.346461E0,3.1383696E0,1.9215664E0,1.2168031E0],"tree_param":{"num_deleted":"0","num_feature":"9","num_nodes":"5","size_leaf_vector":"1"}},{"base_weights":[-6.1212005E-3,-4.1981693E-2,1.9238436E-1,-1.6746363E-2,4.413888E-2],"categories":[],"categories_nodes":[],"categories_segments":[],"categories_sizes":[],"default_left":[0,0,0,0,0],"id":26,"left_children":[1,-1,3,-1,-1],"loss_changes":[5.2789694E-1,0E0,4.6504322E-1,0E0,0E0],"parents":[2147483647,0,0,2,2],"right_children":[2,-1,4,-1,-1],"split_conditions":[-8.483465E-3,-4.1981693E-2,8.1355995E1,-1.6746363E-2,4.413888E-2],"split_indices":[4,0,7,0,0],"split_type":[0,0,0,0,0],"sum_hessian":[4.444785E0,1.0797156E0,3.3650696E0,1.5101494E0,1.8549204E0],"tree_param":{"num_deleted":"0","num_feature":"9","num_nodes":"5","size_leaf_vector":"1"}},{"base_weights":[-8.188596E-3,-2.092349E-1,3.90483E-2,2.3158982E-2,-4.2477122E-1,-6.001363E-2,-3.0928883E-3],"categories":[],"categories_nodes":[],"categories_segments":[],"categories_sizes":[],"default_left":[0,0,0,0,0,0,0],"id":27,"left_children":[1,3,-1,-1,5,-1,-1],"loss_changes":[5.148774E-1,5.015924E-1,0E0,0E0,2.0266151E-1,0E0,0E0],"parents":[2147483647,0,0,1,1,4,4],"right_children":[2,4,-1,-1,6,-1,-1],"split_conditions":[8.658844E1,1.6037564E0,3.90483E-2,2.3158982E-2,1.3338426E-1,-6.001363E-2,-3.0928883E-3],"split_indices":[8,3,0,0,5,0,0],"split_type":[0,0,0,0,0,0,0],"sum_hessian":[4.4044533E0,3.2438035E0,1.1606495E0,1.0407443E0,2.2030592E0,1.1619036E0,1.0411557E0],"tree_param":{"num_deleted":"0","num_feature":"9","num_nodes":"7","size_leaf_vector":"1"}},{"base_weights":[-7.6314528E-3,-1.9341256E-1,3.9670926E-2,2.516271E-2,-4.2459974E-1,-5.2917928E-2,-1.0206993E-2],"categories":[],"categories_nodes":[],"categories_segments":[],"categories_sizes":[],"default_left":[0,0,0,0,0,0,0],"id":28,"left_children":[1,3,-1,-1,5,-1,-1],"loss_changes":[4.7963527E-1,5.541216E-1,0E0,0E0,5.5040777E-2,0E0,0E0],"parents":[2147483647,0,0,1,1,4,4],"right_children":[2,4,-1,-1,6,-1,-1],"split_conditions":[7.12196E1,8.610463E-2,3.9670926E-2,2.516271E-2,1.9006194E-1,-5.2917928E-2,-1.0206993E-2],"split_indices":[0,6,0,0,6,0,0],"split_type":[0,0,0,0,0,0,0],"sum_hessian":[4.3635883E0,3.3472826E0,1.0163054E0,1.1141363E0,2.2331462E0,1.202518E0,1.0306282E0],"tree_param":{"num_deleted":"0","num_feature":"9","num_nodes":"7","size_leaf_vector":"1"}},{"base_weights":[-6.6205496E-3,-1.9623512E-1,3.712484E-2,2.2559538E-2,-4.0431097E-1,-5.7645615E-2,-2.3138146E-3],"categories":[],"categories_nodes":[],"categories_segments":[],"categories_sizes":[],"default_left":[0,0,0,0,0,0,0],"id":29,"left_children":[1,3,-1,-1,5,-1,-1],"loss_changes":[4.5456263E-1,4.5999616E-1,0E0,0E0,1.9478804E-1,0E0,0E0],"parents":[2147483647,0,0,1,1,4,4],"right_children":[2,4,-1,-1,6,-1,-1],"split_conditions":[8.658844E1,1.6037564E0,3.712484E-2,2.2559538E-2,1.3338426E-1,-5.7645615E-2,-2.3138146E-3],"split_indices":[8,3,0,0,5,0,0],"split_type":[0,0,0,0,0,0,0],"sum_hessian":[4.3274746E0,3.2015944E0,1.1258804E0,1.029764E0,2.1718302E0,1.1432114E0,1.0286189E0],"tree_param":{"num_deleted":"0","num_feature":"9","num_nodes":"7","size_leaf_vector":"1"}},{"base_weights":[-6.096517E-3,-3.527755E-2,1.9293898E-1,4.0214863E-2,-1.6548237E-2],"categories":[],"categories_nodes":[],"categories_segments":[],"categories_sizes":[],"default_left":[0,0,0,0,0],"id":30,"left_children":[1,-1,3,-1,-1],"loss_changes":[4.3293658E-1,0E0,3.6691797E-1,0E0,0E0],"parents":[2147483647,0,0,2,2],"right_children":[2,-1,4,-1,-1],"split_conditions":[7.96537E1,-3.527755E-2,3.933512E-1,4.0214863E-2,-1.6548237E-2],"split_indices":[7,0,4,0,0],"split_type":[0,0,0,0,0],"sum_hessian":[4.2878966E0,1.2821791E0,3.0057178E0,1.8208771E0,1.1848407E0],"tree_param":{"num_deleted":"0","num_feature":"9","num_nodes":"5","size_leaf_vector":"1"}},{"base_weights":[-7.6844296E-3,-3.9025225E-2,1.7862861E-1,-1.4549251E-2,4.0476356E-2],"categories":[],"categories_nodes":[],"categories_segments":[],"categories_sizes":[],"default_left":[0,0,0,0,0],"id":31,"left_children":[1,-1,3,-1,-1],"loss_changes":[4.439919E-1,0E0,3.6799717E-1,0E0,0E0],"parents":[2147483647,0,0,2,2],"right_children":[2,-1,4,-1,-1],"split_conditions":[-8.483465E-3,-3.9025225E-2,8.1355995E1,-1.4549251E-2,4.0476356E-2],"split_indices":[4,0,7,0,0],"split_type":[0,0,0,0,0],"sum_hessian":[4.2510586E0,1.0337639E0,3.217295E0,1.468744E0,1.7485509E0],"tree_param":{"num_deleted":"0","num_feature":"9","num_nodes":"5","size_leaf_vector":"1"}},{"base_weights":[-9.428561E-3,-1.9029012E-1,3.5027605E-2,-4.6083476E-2,9.724065E-3],"categories":[],"categories_nodes":[],"categories_segments":[],"categories_sizes":[],"default_left":[0,0,0,0,0],"id":32,"left_children":[1,3,-1,-1,-1],"loss_changes":[4.0588054E-1,3.651274E-1,0E0,0E0,0E0],"parents":[2147483647,0,0,1,1],"right_children":[2,4,-1,-1,-1],"split_conditions":[8.658844E1,7.999989E1,3.5027605E-2,-4.6083476E-2,9.724065E-3],"split_indices":[8,7,0,0,0],"split_type":[0,0,0,0,0],"sum_hessian":[4.214317E0,3.117701E0,1.0966158E0,1.2957587E0,1.8219423E0],"tree_param":{"num_deleted":"0","num_feature":"9","num_nodes":"5","size_leaf_vector":"1"}},{"base_weights":[-8.855264E-3,-3.722166E-2,1.6956013E-1,3.8341846E-2,-1.1687374E-2],"categories":[],"categories_nodes":[],"categories_segments":[],"categories_sizes":[],"default_left":[0,0,0,0,0],"id":33,"left_children":[1,-1,3,-1,-1],"loss_changes":[3.9858246E-1,0E0,2.994902E-1,0E0,0E0],"parents":[2147483647,0,0,2,2],"right_children":[2,-1,4,-1,-1],"split_conditions":[-8.483465E-3,-3.722166E-2,3.933512E-1,3.8341846E-2,-1.1687374E-2],"split_indices":[4,0,4,0,0],"split_type":[0,0,0,0,0],"sum_hessian":[4.17466E0,1.0170656E0,3.1575944E0,1.6139718E0,1.5436226E0],"tree_param":{"num_deleted":"0","num_feature":"9","num_nodes":"5","size_leaf_vector":"1"}},{"base_weights":[-1.0036445E-2,-1.828146E-1,3.3497777E-2,-4.439861E-2,9.359366E-3],"categories":[],"categories_nodes":[],"categories_segments":[],"categories_sizes":[],"default_left":[0,0,0,0,0],"id":34,"left_children":[1,3,-1,-1,-1],"loss_changes":[3.6770257E-1,3.3554927E-1,0E0,0E0,0E0],"parents":[2147483647,0,0,1,1],"right_children":[2,4,-1,-1,-1],"split_conditions":[8.658844E1,7.999989E1,3.3497777E-2,-4.439861E-2,9.359366E-3],"split_indices":[8,7,0,0,0],"split_type":[0,0,0,0,0],"sum_hessian":[4.1410675E0,3.0725188E0,1.0685488E0,1.2680756E0,1.8044432E0],"tree_param":{"num_deleted":"0","num_feature":"9","num_nodes":"5","size_leaf_vector":"1"}},{"base_weights":[-9.447849E-3,-3.553749E-2,1.6157965E-1,-1.2386776E-2,3.599511E-2],"categories":[],"categories_nodes":[],"categories_segments":[],"categories_sizes":[],"default_left":[0,0,0,0,0],"id":35,"left_children":[1,-1,3,-1,-1],"loss_changes":[3.593503E-1,0E0,2.7688348E-1,0E0,0E0],"parents":[2147483647,0,0,2,2],"right_children":[2,-1,4,-1,-1],"split_conditions":[-8.483465E-3,-3.553749E-2,8.1355995E1,-1.2386776E-2,3.599511E-2],"split_indices":[4,0,7,0,0],"split_type":[0,0,0,0,0],"sum_hessian":[4.103338E0,1.0009319E0,3.1024058E0,1.4260138E0,1.676392E0],"tree_param":{"num_deleted":"0","num_feature":"9","num_nodes":"5","size_leaf_vector":"1"}},{"base_weights":[-1.08753685E-2,-1.757744E-1,3.195735E-2,1.4005E-2,-3.7316274E-2],"categories":[],"categories_nodes":[],"categories_segments":[],"categories_sizes":[],"default_left":[0,0,0,0,0],"id":36,"left_children":[1,3,-1,-1,-1],"loss_changes":[3.3246782E-1,3.0334857E-1,0E0,0E0,0E0],"parents":[2147483647,0,0,1,1],"right_children":[2,4,-1,-1,-1],"split_conditions":[8.658844E1,2.7814397E-1,3.195735E-2,1.4005E-2,-3.7316274E-2],"split_indices":[8,4,0,0,0],"split_type":[0,0,0,0,0],"sum_hessian":[4.070498E0,3.0277023E0,1.0427958E0,1.2762182E0,1.7514842E0],"tree_param":{"num_deleted":"0","num_feature":"9","num_nodes":"5","size_leaf_vector":"1"}},{"base_weights":[-8.159191E-3,-1.6489418E-1,3.0541617E-2,-4.035165E-2,8.547007E-3],"categories":[],"categories_nodes":[],"categories_segments":[],"categories_sizes":[],"default_left":[0,0,0,0,0],"id":37,"left_children":[1,3,-1,-1,-1],"loss_changes":[2.9790044E-1,2.7390605E-1,0E0,0E0,0E0],"parents":[2147483647,0,0,1,1],"right_children":[2,4,-1,-1,-1],"split_conditions":[8.658844E1,7.999989E1,3.0541617E-2,-4.035165E-2,8.547007E-3],"split_indices":[8,7,0,0,0],"split_type":[0,0,0,0,0],"sum_hessian":[4.036582E0,3.0074902E0,1.0290917E0,1.2266508E0,1.7808393E0],"tree_param":{"num_deleted":"0","num_feature":"9","num_nodes":"5","size_leaf_vector":"1"}},{"base_weights":[-7.687535E-3,2.499318E-2,-1.9685294E-1,-4.9502175E-2,2.428449E-2],"categories":[],"categories_nodes":[],"categories_segments":[],"categories_sizes":[],"default_left":[0,0,0,0,0],"id":38,"left_children":[1,-1,3,-1,-1],"loss_changes":[2.929611E-1,0E0,5.716833E-1,0E0,0E0],"parents":[2147483647,0,0,2,2],"right_children":[2,-1,4,-1,-1],"split_conditions":[9.974443E-2,2.499318E-2,2.044252E0,-4.9502175E-2,2.428449E-2],"split_indices":[6,0,3,0,0],"split_type":[0,0,0,0,0],"sum_hessian":[4.0020103E0,1.5584141E0,2.4435964E0,1.3811713E0,1.0624251E0],"tree_param":{"num_deleted":"0","num_feature":"9","num_nodes":"5","size_leaf_vector":"1"}},{"base_weights":[-7.054777E-3,-1.6086349E-1,2.9911209E-2,1.2094436E-2,-3.3714693E-2],"categories":[],"categories_nodes":[],"categories_segments":[],"categories_sizes":[],"default_left":[0,0,0,0,0],"id":39,"left_children":[1,3,-1,-1,-1],"loss_changes":[2.82474E-1,2.3764208E-1,0E0,0E0,0E0],"parents":[2147483647,0,0,1,1],"right_children":[2,4,-1,-1,-1],"split_conditions":[8.658844E1,2.7814397E-1,2.9911209E-2,1.2094436E-2,-3.3714693E-2],"split_indices":[8,4,0,0,0],"split_type":[0,0,0,0,0],"sum_hessian":[3.9766867E0,2.962838E0,1.0138488E0,1.2609677E0,1.7018702E0],"tree_param":{"num_deleted":"0","num_feature":"9","num_nodes":"5","size_leaf_vector":"1"}},{"base_weights":[-4.7305E-3,-2.945341E-2,1.595057E-1,4.698839E-2,-1.5705703E-2],"categories":[],"categories_nodes":[],"categories_segments":[],"categories_sizes":[],"default_left":[0,0,0,0,0],"id":40,"left_children":[1,-1,3,-1,-1],"loss_changes":[2.8236365E-1,0E0,4.4768068E-1,0E0,0E0],"parents":[2147483647,0,0,2,2],"right_children":[2,-1,4,-1,-1],"split_conditions":[7.96537E1,-2.945341E-2,8.350507E1,4.698839E-2,-1.5705703E-2],"split_indices":[7,0,7,0,0],"split_type":[0,0,0,0,0],"sum_hessian":[3.9454281E0,1.1401737E0,2.8052545E0,1.1719091E0,1.6333452E0],"tree_param":{"num_deleted":"0","num_feature":"9","num_nodes":"5","size_leaf_vector":"1"}},{"base_weights":[-3.8864696E-3,-1.5591177E-1,2.9471923E-2,-3.727986E-2,7.2850618E-3],"categories":[],"categories_nodes":[],"categories_segments":[],"categories_sizes":[],"default_left":[0,0,0,0,0],"id":41,"left_children":[1,3,-1,-1,-1],"loss_changes":[2.699033E-1,2.2180311E-1,0E0,0E0,0E0],"parents":[2147483647,0,0,1,1],"right_children":[2,4,-1,-1,-1],"split_conditions":[8.658844E1,7.999989E1,2.9471923E-2,-3.727986E-2,7.2850618E-3],"split_indices":[8,7,0,0,0],"split_type":[0,0,0,0,0],"sum_hessian":[3.933364E0,2.9230542E0,1.0103098E0,1.1772681E0,1.745786E0],"tree_param":{"num_deleted":"0","num_feature":"9","num_nodes":"5","size_leaf_vector":"1"}},{"base_weights":[-3.660483E-3,-2.182881E-2,1.9992684E-1,-7.586858E-3,3.751867E-2],"categories":[],"categories_nodes":[],"categories_segments":[],"categories_sizes":[],"default_left":[0,0,0,0,0],"id":42,"left_children":[1,-1,3,-1,-1],"loss_changes":[2.5780112E-1,0E0,1.7527232E-1,0E0,0E0],"parents":[2147483647,0,0,2,2],"right_children":[2,-1,4,-1,-1],"split_conditions":[1.3338426E-1,-2.182881E-2,1.8255231E0,-7.586858E-3,3.751867E-2],"split_indices":[5,0,3,0,0],"split_type":[0,0,0,0,0],"sum_hessian":[3.9011838E0,1.8639477E0,2.037236E0,1.0119314E0,1.0253047E0],"tree_param":{"num_deleted":"0","num_feature":"9","num_nodes":"5","size_leaf_vector":"1"}},{"base_weights":[-1.6348073E-3,2.3869446E-2,-1.8020603E-1,-4.649357E-2,2.3658274E-2],"categories":[],"categories_nodes":[],"categories_segments":[],"categories_sizes":[],"default_left":[0,0,0,0,0],"id":43,"left_children":[1,-1,3,-1,-1],"loss_changes":[2.5312746E-1,0E0,5.1095074E-1,0E0,0E0],"parents":[2147483647,0,0,2,2],"right_children":[2,-1,4,-1,-1],"split_conditions":[9.974443E-2,2.3869446E-2,2.044252E0,-4.649357E-2,2.3658274E-2],"split_indices":[6,0,3,0,0],"split_type":[0,0,0,0,0],"sum_hessian":[3.895932E0,1.5172533E0,2.3786786E0,1.344597E0,1.0340817E0],"tree_param":{"num_deleted":"0","num_feature":"9","num_nodes":"5","size_leaf_vector":"1"}},{"base_weights":[-1.3173043E-3,-2.772973E-2,1.5227492E-1,4.4301745E-2,-1.4338471E-2],"categories":[],"categories_nodes":[],"categories_segments":[],"categories_sizes":[],"default_left":[0,0,0,0,0],"id":44,"left_children":[1,-1,3,-1,-1],"loss_changes":[2.4872322E-1,0E0,3.8804743E-1,0E0,0E0],"parents":[2147483647,0,0,2,2],"right_children":[2,-1,4,-1,-1],"split_conditions":[7.96537E1,-2.772973E-2,8.350507E1,4.4301745E-2,-1.4338471E-2],"split_indices":[7,0,7,0,0],"split_type":[0,0,0,0,0],"sum_hessian":[3.8715653E0,1.0962936E0,2.7752717E0,1.1479801E0,1.6272917E0],"tree_param":{"num_deleted":"0","num_feature":"9","num_nodes":"5","size_leaf_vector":"1"}},{"base_weights":[-7.161441E-4,-1.5507494E-1,2.9737502E-2,1.1427974E-2,-3.232799E-2],"categories":[],"categories_nodes":[],"categories_segments":[],"categories_sizes":[],"default_left":[0,0,0,0,0],"id":45,"left_children":[1,3,-1,-1,-1],"loss_changes":[2.6970434E-1,2.1177045E-1,0E0,0E0,0E0],"parents":[2147483647,0,0,1,1],"right_children":[2,4,-1,-1,-1],"split_conditions":[8.658844E1,2.7814397E-1,2.9737502E-2,1.1427974E-2,-3.232799E-2],"split_indices":[8,4,0,0,0],"split_type":[0,0,0,0,0],"sum_hessian":[3.8592565E0,2.8587172E0,1.0005392E0,1.2221779E0,1.6365393E0],"tree_param":{"num_deleted":"0","num_feature":"9","num_nodes":"5","size_leaf_vector":"1"}},{"base_weights":[1.1677191E-3,-2.1148117E-2,2.0347051E-2],"categories":[],"categories_nodes":[],"categories_segments":[],"categories_sizes":[],"default_left":[0,0,0],"id":46,"left_children":[1,-1,-1],"loss_changes":[2.5078368E-1,0E0,0E0],"parents":[2147483647,0,0],"right_children":[2,-1,-1],"split_conditions":[1.3338426E-1,-2.1148117E-2,2.0347051E-2],"split_indices":[5,0,0],"split_type":[0,0,0],"sum_hessian":[3.8292906E0,1.844788E0,1.9845027E0],"tree_param":{"num_deleted":"0","num_feature":"9","num_nodes":"3","size_leaf_vector":"1"}},{"base_weights":[8.8768225E-4,-2.6601454E-2,1.4784853E-1,4.2535733E-2,-1.3583915E-2],"categories":[],"categories_nodes":[],"categories_segments":[],"categories_sizes":[],"default_left":[0,0,0,0,0],"id":47,"left_children":[1,-1,3,-1,-1],"loss_changes":[2.2853996E-1,0E0,3.5329008E-1,0E0,0E0],"parents":[2147483647,0,0,2,2],"right_children":[2,-1,4,-1,-1],"split_conditions":[7.96537E1,-2.6601454E-2,8.350507E1,4.2535733E-2,-1.3583915E-2],"split_indices":[7,0,7,0,0],"split_type":[0,0,0,0,0],"sum_hessian":[3.8238125E0,1.0701535E0,2.753659E0,1.1395464E0,1.6141126E0],"tree_param":{"num_deleted":"0","num_feature":"9","num_nodes":"5","size_leaf_vector":"1"}},{"base_weights":[1.3015772E-3,2.282175E-2,-1.6796401E-1,-4.3779377E-2,2.2870326E-2],"categories":[],"categories_nodes":[],"categories_segments":[],"categories_sizes":[],"default_left":[0,0,0,0,0],"id":48,"left_children":[1,-1,3,-1,-1],"loss_changes":[2.2314902E-1,0E0,4.567615E-1,0E0,0E0],"parents":[2147483647,0,0,2,2],"right_children":[2,-1,4,-1,-1],"split_conditions":[9.974443E-2,2.282175E-2,2.044252E0,-4.3779377E-2,2.2870326E-2],"split_indices":[6,0,3,0,0],"split_type":[0,0,0,0,0],"sum_hessian":[3.8117993E0,1.4797624E0,2.3320367E0,1.3262117E0,1.005825E0],"tree_param":{"num_deleted":"0","num_feature":"9","num_nodes":"5","size_leaf_vector":"1"}},{"base_weights":[1.5302465E-3,-2.0067956E-2,1.9486535E-2],"categories":[],"categories_nodes":[],"categories_segments":[],"categories_sizes":[],"default_left":[0,0,0],"id":49,"left_children":[1,-1,-1],"loss_changes":[2.2629541E-1,0E0,0E0],"parents":[2147483647,0,0],"right_children":[2,-1,-1],"split_conditions":[1.3338426E-1,-2.0067956E-2,1.9486535E-2],"split_indices":[5,0,0],"split_type":[0,0,0],"sum_hessian":[3.7881699E0,1.8330201E0,1.9551499E0],"tree_param":{"num_deleted":"0","num_feature":"9","num_nodes":"3","size_leaf_vector":"1"}},{"base_weights":[1.2588078E-3,2.6012722E-2,-1.533239E-1,-3.7004434E-2,1.4552968E-2],"categories":[],"categories_nodes":[],"categories_segments":[],"categories_sizes":[],"default_left":[0,0,0,0,0],"id":50,"left_children":[1,-1,3,-1,-1],"loss_changes":[2.312748E-1,0E0,2.88554E-1,0E0,0E0],"parents":[2147483647,0,0,2,2],"right_children":[2,-1,4,-1,-1],"split_conditions":[1.5475311E0,2.6012722E-2,8.346458E1,-3.7004434E-2,1.4552968E-2],"split_indices":[3,0,8,0,0],"split_type":[0,0,0,0,0],"sum_hessian":[3.7827954E0,1.1590495E0,2.623746E0,1.3827795E0,1.2409664E0],"tree_param":{"num_deleted":"0","num_feature":"9","num_nodes":"5","size_leaf_vector":"1"}},{"base_weights":[1.8555796E-3,2.2584902E-2,-1.6464554E-1,-4.1589E-2,1.747228E-2],"categories":[],"categories_nodes":[],"categories_segments":[],"categories_sizes":[],"default_left":[0,0,0,0,0],"id":51,"left_children":[1,-1,3,-1,-1],"loss_changes":[2.1472825E-1,0E0,3.5480997E-1,0E0,0E0],"parents":[2147483647,0,0,2,2],"right_children":[2,-1,4,-1,-1],"split_conditions":[9.974443E-2,2.2584902E-2,2.1189398E-1,-4.1589E-2,1.747228E-2],"split_indices":[6,0,6,0,0],"split_type":[0,0,0,0,0],"sum_hessian":[3.7604902E0,1.4514362E0,2.309054E0,1.1972281E0,1.111826E0],"tree_param":{"num_deleted":"0","num_feature":"9","num_nodes":"5","size_leaf_vector":"1"}},{"base_weights":[1.2950381E-3,2.4815736E-2,-1.4591615E-1,-3.4901965E-2,1.3619328E-2],"categories":[],"categories_nodes":[],"categories_segments":[],"categories_sizes":[],"default_left":[0,0,0,0,0],"id":52,"left_children":[1,-1,3,-1,-1],"loss_changes":[2.0811707E-1,0E0,2.5340497E-1,0E0,0E0],"parents":[2147483647,0,0,2,2],"right_children":[2,-1,4,-1,-1],"split_conditions":[1.5475311E0,2.4815736E-2,8.346458E1,-3.4901965E-2,1.3619328E-2],"split_indices":[3,0,8,0,0],"split_type":[0,0,0,0,0],"sum_hessian":[3.7303982E0,1.1373769E0,2.5930214E0,1.3697193E0,1.223302E0],"tree_param":{"num_deleted":"0","num_feature":"9","num_nodes":"5","size_leaf_vector":"1"}},{"base_weights":[1.8929901E-3,-1.9162681E-2,1.8661609E-2],"categories":[],"categories_nodes":[],"categories_segments":[],"categories_sizes":[],"default_left":[0,0,0],"id":53,"left_children":[1,-1,-1],"loss_changes":[2.040998E-1,0E0,0E0],"parents":[2147483647,0,0],"right_children":[2,-1,-1],"split_conditions":[1.3338426E-1,-1.9162681E-2,1.8661609E-2],"split_indices":[5,0,0],"split_type":[0,0,0],"sum_hessian":[3.7091064E0,1.7931705E0,1.9159361E0],"tree_param":{"num_deleted":"0","num_feature":"9","num_nodes":"3","size_leaf_vector":"1"}},{"base_weights":[1.6001048E-3,2.2329733E-2,-1.6280162E-1,-3.9702702E-2,1.5867122E-2],"categories":[],"categories_nodes":[],"categories_segments":[],"categories_sizes":[],"default_left":[0,0,0,0,0],"id":54,"left_children":[1,-1,3,-1,-1],"loss_changes":[2.0780846E-1,0E0,3.0993173E-1,0E0,0E0],"parents":[2147483647,0,0,2,2],"right_children":[2,-1,4,-1,-1],"split_conditions":[9.974443E-2,2.2329733E-2,2.1189398E-1,-3.9702702E-2,1.5867122E-2],"split_indices":[6,0,6,0,0],"split_type":[0,0,0,0,0],"sum_hessian":[3.704184E0,1.424709E0,2.279475E0,1.1827195E0,1.0967555E0],"tree_param":{"num_deleted":"0","num_feature":"9","num_nodes":"5","size_leaf_vector":"1"}},{"base_weights":[1.0694274E-3,2.4080202E-2,-1.423183E-1,-3.6146812E-2,1.15808835E-2],"categories":[],"categories_nodes":[],"categories_segments":[],"categories_sizes":[],"default_left":[0,0,0,0,0],"id":55,"left_children":[1,-1,3,-1,-1],"loss_changes":[1.9497916E-1,0E0,2.4290425E-1,0E0,0E0],"parents":[2147483647,0,0,2,2],"right_children":[2,-1,4,-1,-1],"split_conditions":[1.5475311E0,2.4080202E-2,2.044252E0,-3.6146812E-2,1.15808835E-2],"split_indices":[3,0,3,0,0],"split_type":[0,0,0,0,0],"sum_hessian":[3.6751997E0,1.1212254E0,2.5539744E0,1.1647518E0,1.3892227E0],"tree_param":{"num_deleted":"0","num_feature":"9","num_nodes":"5","size_leaf_vector":"1"}},{"base_weights":[8.515063E-4,-1.927869E-2,1.8690027E-2],"categories":[],"categories_nodes":[],"categories_segments":[],"categories_sizes":[],"default_left":[0,0,0],"id":56,"left_children":[1,-1,-1],"loss_changes":[2.0403673E-1,0E0,0E0],"parents":[2147483647,0,0],"right_children":[2,-1,-1],"split_conditions":[1.3338426E-1,-1.927869E-2,1.8690027E-2],"split_indices":[5,0,0],"split_type":[0,0,0],"sum_hessian":[3.6634076E0,1.777343E0,1.8860645E0],"tree_param":{"num_deleted":"0","num_feature":"9","num_nodes":"3","size_leaf_vector":"1"}},{"base_weights":[6.419978E-4,2.1852558E-2,-1.6185546E-1,-3.83623E-2,1.4554094E-2],"categories":[],"categories_nodes":[],"categories_segments":[],"categories_sizes":[],"default_left":[0,0,0,0,0],"id":57,"left_children":[1,-1,3,-1,-1],"loss_changes":[2.0029749E-1,0E0,2.7689323E-1,0E0,0E0],"parents":[2147483647,0,0,2,2],"right_children":[2,-1,4,-1,-1],"split_conditions":[9.974443E-2,2.1852558E-2,1.8445257E0,-3.83623E-2,1.4554094E-2],"split_indices":[6,0,3,0,0],"split_type":[0,0,0,0,0],"sum_hessian":[3.658254E0,1.4154985E0,2.2427554E0,1.1587871E0,1.0839683E0],"tree_param":{"num_deleted":"0","num_feature":"9","num_nodes":"5","size_leaf_vector":"1"}},{"base_weights":[1.3386278E-4,2.4012445E-2,-1.4383009E-1,-3.4856215E-2,1.0107514E-2],"categories":[],"categories_nodes":[],"categories_segments":[],"categories_sizes":[],"default_left":[0,0,0,0,0],"id":58,"left_children":[1,-1,3,-1,-1],"loss_changes":[1.9491106E-1,0E0,2.1206203E-1,0E0,0E0],"parents":[2147483647,0,0,2,2],"right_children":[2,-1,4,-1,-1],"split_conditions":[1.5475311E0,2.4012445E-2,2.044252E0,-3.4856215E-2,1.0107514E-2],"split_indices":[3,0,3,0,0],"split_type":[0,0,0,0,0],"sum_hessian":[3.6417944E0,1.1150452E0,2.5267494E0,1.1457173E0,1.381032E0],"tree_param":{"num_deleted":"0","num_feature":"9","num_nodes":"5","size_leaf_vector":"1"}},{"base_weights":[-4.631602E-5,-1.938775E-2,1.8778961E-2],"categories":[],"categories_nodes":[],"categories_segments":[],"categories_sizes":[],"default_left":[0,0,0],"id":59,"left_children":[1,-1,-1],"loss_changes":[2.0497891E-1,0E0,0E0],"parents":[2147483647,0,0],"right_children":[2,-1,-1],"split_conditions":[1.3338426E-1,-1.938775E-2,1.8778961E-2],"split_indices":[5,0,0],"split_type":[0,0,0],"sum_hessian":[3.629988E0,1.7706543E0,1.8593335E0],"tree_param":{"num_deleted":"0","num_feature":"9","num_nodes":"3","size_leaf_vector":"1"}},{"base_weights":[-1.721053E-4,2.1406928E-2,-1.6026892E-1,-3.7907824E-2,1.4361979E-2],"categories":[],"categories_nodes":[],"categories_segments":[],"categories_sizes":[],"default_left":[0,0,0,0,0],"id":60,"left_children":[1,-1,3,-1,-1],"loss_changes":[1.9293196E-1,0E0,2.6846337E-1,0E0,0E0],"parents":[2147483647,0,0,2,2],"right_children":[2,-1,4,-1,-1],"split_conditions":[9.974443E-2,2.1406928E-2,2.1189398E-1,-3.7907824E-2,1.4361979E-2],"split_indices":[6,0,6,0,0],"split_type":[0,0,0,0,0],"sum_hessian":[3.6246722E0,1.4060174E0,2.2186549E0,1.1460433E0,1.0726115E0],"tree_param":{"num_deleted":"0","num_feature":"9","num_nodes":"5","size_leaf_vector":"1"}},{"base_weights":[-6.742113E-4,-1.8695593E-2,1.8084435E-2],"categories":[],"categories_nodes":[],"categories_segments":[],"categories_sizes":[],"default_left":[0,0,0],"id":61,"left_children":[1,-1,-1],"loss_changes":[1.8926236E-1,0E0,0E0],"parents":[2147483647,0,0],"right_children":[2,-1,-1],"split_conditions":[1.3338426E-1,-1.8695593E-2,1.8084435E-2],"split_indices":[5,0,0],"split_type":[0,0,0],"sum_hessian":[3.5973358E0,1.760591E0,1.8367448E0],"tree_param":{"num_deleted":"0","num_feature":"9","num_nodes":"3","size_leaf_vector":"1"}},{"base_weights":[-7.396097E-4,2.3726E-2,-1.440974E-1,-3.449885E-2,9.789727E-3],"categories":[],"categories_nodes":[],"categories_segments":[],"categories_sizes":[],"default_left":[0,0,0,0,0],"id":62,"left_children":[1,-1,3,-1,-1],"loss_changes":[1.9086961E-1,0E0,2.0334394E-1,0E0,0E0],"parents":[2147483647,0,0,2,2],"right_children":[2,-1,4,-1,-1],"split_conditions":[1.5475311E0,2.3726E-2,2.044252E0,-3.449885E-2,9.789727E-3],"split_indices":[3,0,3,0,0],"split_type":[0,0,0,0,0],"sum_hessian":[3.5921812E0,1.1041216E0,2.4880595E0,1.1269346E0,1.3611249E0],"tree_param":{"num_deleted":"0","num_feature":"9","num_nodes":"5","size_leaf_vector":"1"}},{"base_weights":[-8.9042686E-4,2.09663E-2,-1.5911834E-1,-3.6728475E-2,1.3305927E-2],"categories":[],"categories_nodes":[],"categories_segments":[],"categories_sizes":[],"default_left":[0,0,0,0,0],"id":63,"left_children":[1,-1,3,-1,-1],"loss_changes":[1.8596074E-1,0E0,2.4250862E-1,0E0,0E0],"parents":[2147483647,0,0,2,2],"right_children":[2,-1,4,-1,-1],"split_conditions":[9.974443E-2,2.09663E-2,1.8445257E0,-3.6728475E-2,1.3305927E-2],"split_indices":[6,0,3,0,0],"split_type":[0,0,0,0,0],"sum_hessian":[3.580446E0,1.3967394E0,2.1837068E0,1.125072E0,1.0586345E0],"tree_param":{"num_deleted":"0","num_feature":"9","num_nodes":"5","size_leaf_vector":"1"}},{"base_weights":[-1.3655798E-3,-1.8798374E-2,1.819289E-2],"categories":[],"categories_nodes":[],"categories_segments":[],"categories_sizes":[],"default_left":[0,0,0],"id":64,"left_children":[1,-1,-1],"loss_changes":[1.9033472E-1,0E0,0E0],"parents":[2147483647,0,0],"right_children":[2,-1,-1],"split_conditions":[1.3338426E-1,-1.8798374E-2,1.819289E-2],"split_indices":[5,0,0],"split_type":[0,0,0],"sum_hessian":[3.5645413E0,1.7535801E0,1.8109611E0],"tree_param":{"num_deleted":"0","num_feature":"9","num_nodes":"3","size_leaf_vector":"1"}},{"base_weights":[-1.362266E-3,2.3639621E-2,-1.4507726E-1,-3.2026786E-2,1.1319362E-2],"categories":[],"categories_nodes":[],"categories_segments":[],"categories_sizes":[],"default_left":[0,0,0,0,0],"id":65,"left_children":[1,-1,3,-1,-1],"loss_changes":[1.9008236E-1,0E0,1.9286439E-1,0E0,0E0],"parents":[2147483647,0,0,2,2],"right_children":[2,-1,4,-1,-1],"split_conditions":[1.5475311E0,2.3639621E-2,8.346458E1,-3.2026786E-2,1.1319362E-2],"split_indices":[3,0,8,0,0],"split_type":[0,0,0,0,0],"sum_hessian":[3.5592368E0,1.0979387E0,2.4612982E0,1.3234962E0,1.137802E0],"tree_param":{"num_deleted":"0","num_feature":"9","num_nodes":"5","size_leaf_vector":"1"}},{"base_weights":[-6.10157E-4,2.0788552E-2,-1.5657772E-1,-3.595686E-2,1.2973495E-2],"categories":[],"categories_nodes":[],"categories_segments":[],"categories_sizes":[],"default_left":[0,0,0,0,0],"id":66,"left_children":[1,-1,3,-1,-1],"loss_changes":[1.8017091E-1,0E0,2.3072919E-1,0E0,0E0],"parents":[2147483647,0,0,2,2],"right_children":[2,-1,4,-1,-1],"split_conditions":[9.974443E-2,2.0788552E-2,2.1189398E-1,-3.595686E-2,1.2973495E-2],"split_indices":[6,0,6,0,0],"split_type":[0,0,0,0,0],"sum_hessian":[3.5395818E0,1.3722701E0,2.1673117E0,1.1184732E0,1.0488386E0],"tree_param":{"num_deleted":"0","num_feature":"9","num_nodes":"5","size_leaf_vector":"1"}},{"base_weights":[-1.0872755E-3,-1.8088251E-2,1.7564794E-2],"categories":[],"categories_nodes":[],"categories_segments":[],"categories_sizes":[],"default_left":[0,0,0],"id":67,"left_children":[1,-1,-1],"loss_changes":[1.7520298E-1,0E0,0E0],"parents":[2147483647,0,0],"right_children":[2,-1,-1],"split_conditions":[1.3338426E-1,-1.8088251E-2,1.7564794E-2],"split_indices":[5,0,0],"split_type":[0,0,0],"sum_hessian":[3.5138054E0,1.7301911E0,1.7836142E0],"tree_param":{"num_deleted":"0","num_feature":"9","num_nodes":"3","size_leaf_vector":"1"}},{"base_weights":[-1.0949274E-3,2.2960952E-2,-1.4102902E-1,-3.369459E-2,9.427323E-3],"categories":[],"categories_nodes":[],"categories_segments":[],"categories_sizes":[],"default_left":[0,0,0,0,0],"id":68,"left_children":[1,-1,3,-1,-1],"loss_changes":[1.7794232E-1,0E0,1.8970387E-1,0E0,0E0],"parents":[2147483647,0,0,2,2],"right_children":[2,-1,4,-1,-1],"split_conditions":[1.5475311E0,2.2960952E-2,2.044252E0,-3.369459E-2,9.427323E-3],"split_indices":[3,0,3,0,0],"split_type":[0,0,0,0,0],"sum_hessian":[3.508839E0,1.082809E0,2.42603E0,1.0880932E0,1.3379366E0],"tree_param":{"num_deleted":"0","num_feature":"9","num_nodes":"5","size_leaf_vector":"1"}},{"base_weights":[-1.2882873E-3,2.0366773E-2,-1.5543099E-1,-3.56637E-2,1.2900807E-2],"categories":[],"categories_nodes":[],"categories_segments":[],"categories_sizes":[],"default_left":[0,0,0,0,0],"id":69,"left_children":[1,-1,3,-1,-1],"loss_changes":[1.7373113E-1,0E0,2.2536455E-1,0E0,0E0],"parents":[2147483647,0,0,2,2],"right_children":[2,-1,4,-1,-1],"split_conditions":[9.974443E-2,2.0366773E-2,1.8445257E0,-3.56637E-2,1.2900807E-2],"split_indices":[6,0,3,0,0],"split_type":[0,0,0,0,0],"sum_hessian":[3.4971113E0,1.363216E0,2.1338954E0,1.1011441E0,1.0327512E0],"tree_param":{"num_deleted":"0","num_feature":"9","num_nodes":"5","size_leaf_vector":"1"}},{"base_weights":[-1.7212454E-3,-1.818513E-2,1.7672142E-2],"categories":[],"categories_nodes":[],"categories_segments":[],"categories_sizes":[],"default_left":[0,0,0],"id":70,"left_children":[1,-1,-1],"loss_changes":[1.7619087E-1,0E0,0E0],"parents":[2147483647,0,0],"right_children":[2,-1,-1],"split_conditions":[1.3338426E-1,-1.818513E-2,1.7672142E-2],"split_indices":[5,0,0],"split_type":[0,0,0],"sum_hessian":[3.481671E0,1.7231373E0,1.7585337E0],"tree_param":{"num_deleted":"0","num_feature":"9","num_nodes":"3","size_leaf_vector":"1"}},{"base_weights":[-1.6646184E-3,2.2886857E-2,-1.4198698E-1,-3.25403E-2,8.195202E-3],"categories":[],"categories_nodes":[],"categories_segments":[],"categories_sizes":[],"default_left":[0,0,0,0,0],"id":71,"left_children":[1,-1,3,-1,-1],"loss_changes":[1.773086E-1,0E0,1.6631421E-1,0E0,0E0],"parents":[2147483647,0,0,2,2],"right_children":[2,-1,4,-1,-1],"split_conditions":[1.5475311E0,2.2886857E-2,2.044252E0,-3.25403E-2,8.195202E-3],"split_indices":[3,0,3,0,0],"split_type":[0,0,0,0,0],"sum_hessian":[3.4765651E0,1.0766823E0,2.3998828E0,1.0702296E0,1.3296531E0],"tree_param":{"num_deleted":"0","num_feature":"9","num_nodes":"5","size_leaf_vector":"1"}},{"base_weights":[-1.8371241E-3,1.9971857E-2,-1.5375525E-1,-3.4407284E-2,1.1806784E-2],"categories":[],"categories_nodes":[],"categories_segments":[],"categories_sizes":[],"default_left":[0,0,0,0,0],"id":72,"left_children":[1,-1,3,-1,-1],"loss_changes":[1.6742484E-1,0E0,2.015645E-1,0E0,0E0],"parents":[2147483647,0,0,2,2],"right_children":[2,-1,4,-1,-1],"split_conditions":[9.974443E-2,1.9971857E-2,2.1189398E-1,-3.4407284E-2,1.1806784E-2],"split_indices":[6,0,6,0,0],"split_type":[0,0,0,0,0],"sum_hessian":[3.4649646E0,1.3539631E0,2.1110015E0,1.0853171E0,1.0256844E0],"tree_param":{"num_deleted":"0","num_feature":"9","num_nodes":"5","size_leaf_vector":"1"}},{"base_weights":[-2.2990871E-3,-1.8231422E-2,1.76848E-2],"categories":[],"categories_nodes":[],"categories_segments":[],"categories_sizes":[],"default_left":[0,0,0],"id":73,"left_children":[1,-1,-1],"loss_changes":[1.7545216E-1,0E0,0E0],"parents":[2147483647,0,0],"right_children":[2,-1,-1],"split_conditions":[1.3338426E-1,-1.8231422E-2,1.76848E-2],"split_indices":[5,0,0],"split_type":[0,0,0],"sum_hessian":[3.4407406E0,1.7073942E0,1.7333465E0],"tree_param":{"num_deleted":"0","num_feature":"9","num_nodes":"3","size_leaf_vector":"1"}},{"base_weights":[-2.1940516E-3,2.225911E-2,-1.3897395E-1,-2.9533464E-2,9.977172E-3],"categories":[],"categories_nodes":[],"categories_segments":[],"categories_sizes":[],"default_left":[0,0,0,0,0],"id":74,"left_children":[1,-1,3,-1,-1],"loss_changes":[1.6730888E-1,0E0,1.5538867E-1,0E0,0E0],"parents":[2147483647,0,0,2,2],"right_children":[2,-1,4,-1,-1],"split_conditions":[1.5475311E0,2.225911E-2,8.346458E1,-2.9533464E-2,9.977172E-3],"split_indices":[3,0,8,0,0],"split_type":[0,0,0,0,0],"sum_hessian":[3.4355075E0,1.0623183E0,2.3731892E0,1.2907909E0,1.0823983E0],"tree_param":{"num_deleted":"0","num_feature":"9","num_nodes":"5","size_leaf_vector":"1"}},{"base_weights":[-1.3925979E-3,1.9822733E-2,-1.5174538E-1,-3.465683E-2,1.2546978E-2],"categories":[],"categories_nodes":[],"categories_segments":[],"categories_sizes":[],"default_left":[0,0,0,0,0],"id":75,"left_children":[1,-1,3,-1,-1],"loss_changes":[1.626613E-1,0E0,2.1015406E-1,0E0,0E0],"parents":[2147483647,0,0,2,2],"right_children":[2,-1,4,-1,-1],"split_conditions":[9.974443E-2,1.9822733E-2,1.8445257E0,-3.465683E-2,1.2546978E-2],"split_indices":[6,0,3,0,0],"split_type":[0,0,0,0,0],"sum_hessian":[3.4173994E0,1.3313637E0,2.0860357E0,1.0781494E0,1.0078863E0],"tree_param":{"num_deleted":"0","num_feature":"9","num_nodes":"5","size_leaf_vector":"1"}},{"base_weights":[-1.7998285E-3,-1.7563129E-2,1.7170276E-2],"categories":[],"categories_nodes":[],"categories_segments":[],"categories_sizes":[],"default_left":[0,0,0],"id":76,"left_children":[1,-1,-1],"loss_changes":[1.6293469E-1,0E0,0E0],"parents":[2147483647,0,0],"right_children":[2,-1,-1],"split_conditions":[1.3338426E-1,-1.7563129E-2,1.7170276E-2],"split_indices":[5,0,0],"split_type":[0,0,0],"sum_hessian":[3.4024336E0,1.6934774E0,1.7089564E0],"tree_param":{"num_deleted":"0","num_feature":"9","num_nodes":"3","size_leaf_vector":"1"}},{"base_weights":[-1.710385E-3,2.2193084E-2,-1.3882914E-1,-3.1828646E-2,7.954242E-3],"categories":[],"categories_nodes":[],"categories_segments":[],"categories_sizes":[],"default_left":[0,0,0,0,0],"id":77,"left_children":[1,-1,3,-1,-1],"loss_changes":[1.6566312E-1,0E0,1.5625706E-1,0E0,0E0],"parents":[2147483647,0,0,2,2],"right_children":[2,-1,4,-1,-1],"split_conditions":[1.5475311E0,2.2193084E-2,2.044252E0,-3.1828646E-2,7.954242E-3],"split_indices":[3,0,3,0,0],"split_type":[0,0,0,0,0],"sum_hessian":[3.3975496E0,1.0562583E0,2.3412914E0,1.0340037E0,1.3072877E0],"tree_param":{"num_deleted":"0","num_feature":"9","num_nodes":"5","size_leaf_vector":"1"}},{"base_weights":[-1.9360544E-3,1.9439777E-2,-1.5013124E-1,-3.270893E-2,1.0683951E-2],"categories":[],"categories_nodes":[],"categories_segments":[],"categories_sizes":[],"default_left":[0,0,0,0,0],"id":78,"left_children":[1,-1,3,-1,-1],"loss_changes":[1.5680076E-1,0E0,1.7426133E-1,0E0,0E0],"parents":[2147483647,0,0,2,2],"right_children":[2,-1,4,-1,-1],"split_conditions":[9.974443E-2,1.9439777E-2,2.1189398E-1,-3.270893E-2,1.0683951E-2],"split_indices":[6,0,6,0,0],"split_type":[0,0,0,0,0],"sum_hessian":[3.3860595E0,1.3223709E0,2.0636888E0,1.0605173E0,1.0031713E0],"tree_param":{"num_deleted":"0","num_feature":"9","num_nodes":"5","size_leaf_vector":"1"}},{"base_weights":[-2.3849146E-3,-1.7623117E-2,1.7190548E-2],"categories":[],"categories_nodes":[],"categories_segments":[],"categories_sizes":[],"default_left":[0,0,0],"id":79,"left_children":[1,-1,-1],"loss_changes":[1.625012E-1,0E0,0E0],"parents":[2147483647,0,0],"right_children":[2,-1,-1],"split_conditions":[1.3338426E-1,-1.7623117E-2,1.7190548E-2],"split_indices":[5,0,0],"split_type":[0,0,0],"sum_hessian":[3.3632758E0,1.6782085E0,1.6850674E0],"tree_param":{"num_deleted":"0","num_feature":"9","num_nodes":"3","size_leaf_vector":"1"}},{"base_weights":[-2.2475414E-3,2.1586044E-2,-1.3591984E-1,-3.1011611E-2,7.6169423E-3],"categories":[],"categories_nodes":[],"categories_segments":[],"categories_sizes":[],"default_left":[0,0,0,0,0],"id":80,"left_children":[1,-1,3,-1,-1],"loss_changes":[1.564055E-1,0E0,1.4612457E-1,0E0,0E0],"parents":[2147483647,0,0,2,2],"right_children":[2,-1,4,-1,-1],"split_conditions":[1.5475311E0,2.1586044E-2,2.044252E0,-3.1011611E-2,7.6169423E-3],"split_indices":[3,0,3,0,0],"split_type":[0,0,0,0,0],"sum_hessian":[3.3582854E0,1.0424734E0,2.3158119E0,1.0177238E0,1.2980882E0],"tree_param":{"num_deleted":"0","num_feature":"9","num_nodes":"5","size_leaf_vector":"1"}},{"base_weights":[-2.45276E-3,-1.7164132E-2,1.6719077E-2],"categories":[],"categories_nodes":[],"categories_segments":[],"categories_sizes":[],"default_left":[0,0,0],"id":81,"left_children":[1,-1,-1],"loss_changes":[1.5347044E-1,0E0,0E0],"parents":[2147483647,0,0],"right_children":[2,-1,-1],"split_conditions":[1.3338426E-1,-1.7164132E-2,1.6719077E-2],"split_indices":[5,0,0],"split_type":[0,0,0],"sum_hessian":[3.3472483E0,1.6699753E0,1.677273E0],"tree_param":{"num_deleted":"0","num_feature":"9","num_nodes":"3","size_leaf_vector":"1"}},{"base_weights":[-2.3118402E-3,1.9657819E-2,-1.5311629E-1,-2.2519197E-2,-4.321613E-4],"categories":[],"categories_nodes":[],"categories_segments":[],"categories_sizes":[],"default_left":[0,0,0,0,0],"id":82,"left_children":[1,-1,3,-1,-1],"loss_changes":[1.6034059E-1,0E0,3.154183E-2,0E0,0E0],"parents":[2147483647,0,0,2,2],"right_children":[2,-1,4,-1,-1],"split_conditions":[9.974443E-2,1.9657819E-2,3.1588618E-2,-2.2519197E-2,-4.321613E-4],"split_indices":[6,0,2,0,0],"split_type":[0,0,0,0,0],"sum_hessian":[3.342316E0,1.310465E0,2.031851E0,1.0229137E0,1.0089372E0],"tree_param":{"num_deleted":"0","num_feature":"9","num_nodes":"5","size_leaf_vector":"1"}},{"base_weights":[-2.8479905E-3,2.093984E-2,-1.3277346E-1,-3.0372852E-2,7.460975E-3],"categories":[],"categories_nodes":[],"categories_segments":[],"categories_sizes":[],"default_left":[0,0,0,0,0],"id":83,"left_children":[1,-1,3,-1,-1],"loss_changes":[1.4723353E-1,0E0,1.3960053E-1,0E0,0E0],"parents":[2147483647,0,0,2,2],"right_children":[2,-1,4,-1,-1],"split_conditions":[1.5475311E0,2.093984E-2,2.044252E0,-3.0372852E-2,7.460975E-3],"split_indices":[3,0,3,0,0],"split_type":[0,0,0,0,0],"sum_hessian":[3.330942E0,1.0325257E0,2.2984161E0,1.0052053E0,1.293211E0],"tree_param":{"num_deleted":"0","num_feature":"9","num_nodes":"5","size_leaf_vector":"1"}},{"base_weights":[-3.0347172E-3,-1.7215524E-2,1.6679917E-2],"categories":[],"categories_nodes":[],"categories_segments":[],"categories_sizes":[],"default_left":[0,0,0],"id":84,"left_children":[1,-1,-1],"loss_changes":[1.528029E-1,0E0,0E0],"parents":[2147483647,0,0],"right_children":[2,-1,-1],"split_conditions":[1.3338426E-1,-1.7215524E-2,1.6679917E-2],"split_indices":[5,0,0],"split_type":[0,0,0],"sum_hessian":[3.320237E0,1.6567638E0,1.6634731E0],"tree_param":{"num_deleted":"0","num_feature":"9","num_nodes":"3","size_leaf_vector":"1"}},{"base_weights":[-2.8578797E-3,1.9271838E-2,-1.512821E-1,-2.1964762E-2,-6.8199093E-4],"categories":[],"categories_nodes":[],"categories_segments":[],"categories_sizes":[],"default_left":[0,0,0,0,0],"id":85,"left_children":[1,-1,3,-1,-1],"loss_changes":[1.5441829E-1,0E0,2.826488E-2,0E0,0E0],"parents":[2147483647,0,0,2,2],"right_children":[2,-1,4,-1,-1],"split_conditions":[9.974443E-2,1.9271838E-2,3.1588618E-2,-2.1964762E-2,-6.8199093E-4],"split_indices":[6,0,2,0,0],"split_type":[0,0,0,0,0],"sum_hessian":[3.3152251E0,1.3016423E0,2.013583E0,1.0135015E0,1.0000814E0],"tree_param":{"num_deleted":"0","num_feature":"9","num_nodes":"5","size_leaf_vector":"1"}},{"base_weights":[-3.3640238E-3,-1.6645856E-2,1.6066778E-2],"categories":[],"categories_nodes":[],"categories_segments":[],"categories_sizes":[],"default_left":[0,0,0],"id":86,"left_children":[1,-1,-1],"loss_changes":[1.4189337E-1,0E0,0E0],"parents":[2147483647,0,0],"right_children":[2,-1,-1],"split_conditions":[1.3338426E-1,-1.6645856E-2,1.6066778E-2],"split_indices":[5,0,0],"split_type":[0,0,0],"sum_hessian":[3.304197E0,1.6494137E0,1.6547834E0],"tree_param":{"num_deleted":"0","num_feature":"9","num_nodes":"3","size_leaf_vector":"1"}},{"base_weights":[-3.1652118E-3,1.879452E-2,-1.4789775E-1,-2.1213157E-2,-9.5224933E-4],"categories":[],"categories_nodes":[],"categories_segments":[],"categories_sizes":[],"default_left":[0,0,0,0,0],"id":87,"left_children":[1,-1,3,-1,-1],"loss_changes":[1.4671804E-1,0E0,2.470012E-2,0E0,0E0],"parents":[2147483647,0,0,2,2],"right_children":[2,-1,4,-1,-1],"split_conditions":[9.974443E-2,1.879452E-2,3.1588618E-2,-2.1213157E-2,-9.5224933E-4],"split_indices":[6,0,2,0,0],"split_type":[0,0,0,0,0],"sum_hessian":[3.2994153E0,1.2932239E0,2.0061915E0,1.0061295E0,1.000062E0],"tree_param":{"num_deleted":"0","num_feature":"9","num_nodes":"5","size_leaf_vector":"1"}},{"base_weights":[-3.6428226E-3,2.072042E-2,-1.3267636E-1,-2.7599946E-2,9.178053E-3],"categories":[],"categories_nodes":[],"categories_segments":[],"categories_sizes":[],"default_left":[0,0,0,0,0],"id":88,"left_children":[1,-1,3,-1,-1],"loss_changes":[1.4417417E-1,0E0,1.3053432E-1,0E0,0E0],"parents":[2147483647,0,0,2,2],"right_children":[2,-1,4,-1,-1],"split_conditions":[1.5475311E0,2.072042E-2,8.346458E1,-2.7599946E-2,9.178053E-3],"split_indices":[3,0,8,0,0],"split_type":[0,0,0,0,0],"sum_hessian":[3.2888186E0,1.0185851E0,2.2702336E0,1.2453833E0,1.0248504E0],"tree_param":{"num_deleted":"0","num_feature":"9","num_nodes":"5","size_leaf_vector":"1"}},{"base_weights":[-2.7725743E-3,1.8105797E-2,-1.4144018E-2],"categories":[],"categories_nodes":[],"categories_segments":[],"categories_sizes":[],"default_left":[0,0,0],"id":89,"left_children":[1,-1,-1],"loss_changes":[1.3451813E-1,0E0,0E0],"parents":[2147483647,0,0],"right_children":[2,-1,-1],"split_conditions":[9.974443E-2,1.8105797E-2,-1.4144018E-2],"split_indices":[6,0,0],"split_type":[0,0,0],"sum_hessian":[3.2724018E0,1.275622E0,1.9967797E0],"tree_param":{"num_deleted":"0","num_feature":"9","num_nodes":"3","size_leaf_vector":"1"}},{"base_weights":[-1.5666066E-3,-1.643858E-2,1.6125932E-2],"categories":[],"categories_nodes":[],"categories_segments":[],"categories_sizes":[],"default_left":[0,0,0],"id":90,"left_children":[1,-1,-1],"loss_changes":[1.3954124E-1,0E0,0E0],"parents":[2147483647,0,0],"right_children":[2,-1,-1],"split_conditions":[1.3338426E-1,-1.643858E-2,1.6125932E-2],"split_indices":[5,0,0],"split_type":[0,0,0],"sum_hessian":[3.2635777E0,1.6270328E0,1.636545E0],"tree_param":{"num_deleted":"0","num_feature":"9","num_nodes":"3","size_leaf_vector":"1"}},{"base_weights":[-1.4844846E-3,2.0136682E-2,-1.2683164E-1,-2.6140569E-2,8.547156E-3],"categories":[],"categories_nodes":[],"categories_segments":[],"categories_sizes":[],"default_left":[0,0,0,0,0],"id":91,"left_children":[1,-1,3,-1,-1],"loss_changes":[1.3383283E-1,0E0,1.1508089E-1,0E0,0E0],"parents":[2147483647,0,0,2,2],"right_children":[2,-1,4,-1,-1],"split_conditions":[1.5475311E0,2.0136682E-2,8.346458E1,-2.6140569E-2,8.547156E-3],"split_indices":[3,0,8,0,0],"split_type":[0,0,0,0,0],"sum_hessian":[3.2590106E0,1.0130701E0,2.2459404E0,1.2330526E0,1.012888E0],"tree_param":{"num_deleted":"0","num_feature":"9","num_nodes":"5","size_leaf_vector":"1"}},{"base_weights":[-7.5866433E-4,-1.3321117E-1,1.8899662E-2,6.4498098E-3,-2.6098017E-2],"categories":[],"categories_nodes":[],"categories_segments":[],"categories_sizes":[],"default_left":[0,0,0,0,0],"id":92,"left_children":[1,3,-1,-1,-1],"loss_changes":[1.3183036E-1,9.4779655E-2,0E0,0E0,0E0],"parents":[2147483647,0,0,1,1],"right_children":[2,4,-1,-1,-1],"split_conditions":[3.2011256E-2,1.18581444E-1,1.8899662E-2,6.4498098E-3,-2.6098017E-2],"split_indices":[2,6,0,0,0],"split_type":[0,0,0,0,0],"sum_hessian":[3.2434855E0,2.0856497E0,1.1578356E0,1.0131314E0,1.0725183E0],"tree_param":{"num_deleted":"0","num_feature":"9","num_nodes":"5","size_leaf_vector":"1"}},{"base_weights":[-8.7355665E-4,-1.5709152E-2,1.547539E-2],"categories":[],"categories_nodes":[],"categories_segments":[],"categories_sizes":[],"default_left":[0,0,0],"id":93,"left_children":[1,-1,-1],"loss_changes":[1.2723158E-1,0E0,0E0],"parents":[2147483647,0,0],"right_children":[2,-1,-1],"split_conditions":[1.3338426E-1,-1.5709152E-2,1.547539E-2],"split_indices":[5,0,0],"split_type":[0,0,0],"sum_hessian":[3.2333782E0,1.6089327E0,1.6244454E0],"tree_param":{"num_deleted":"0","num_feature":"9","num_nodes":"3","size_leaf_vector":"1"}},{"base_weights":[-8.421712E-4,1.8005183E-2,-1.3726125E-2],"categories":[],"categories_nodes":[],"categories_segments":[],"categories_sizes":[],"default_left":[0,0,0],"id":94,"left_children":[1,-1,-1],"loss_changes":[1.2907895E-1,0E0,0E0],"parents":[2147483647,0,0],"right_children":[2,-1,-1],"split_conditions":[9.974443E-2,1.8005183E-2,-1.3726125E-2],"split_indices":[6,0,0],"split_type":[0,0,0],"sum_hessian":[3.2291675E0,1.250775E0,1.9783924E0],"tree_param":{"num_deleted":"0","num_feature":"9","num_nodes":"3","size_leaf_vector":"1"}},{"base_weights":[2.588879E-4,-1.2670934E-1,1.8129637E-2,5.7924753E-3,-2.4515202E-2],"categories":[],"categories_nodes":[],"categories_segments":[],"categories_sizes":[],"default_left":[0,0,0,0,0],"id":95,"left_children":[1,3,-1,-1,-1],"loss_changes":[1.1998758E-1,8.132355E-2,0E0,0E0,0E0],"parents":[2147483647,0,0,1,1],"right_children":[2,4,-1,-1,-1],"split_conditions":[3.2011256E-2,1.18581444E-1,1.8129637E-2,5.7924753E-3,-2.4515202E-2],"split_indices":[2,6,0,0,0],"split_type":[0,0,0,0,0],"sum_hessian":[3.2206388E0,2.069392E0,1.151247E0,1.0083989E0,1.060993E0],"tree_param":{"num_deleted":"0","num_feature":"9","num_nodes":"5","size_leaf_vector":"1"}},{"base_weights":[8.1913E-5,-1.5436529E-2,1.5368386E-2],"categories":[],"categories_nodes":[],"categories_segments":[],"categories_sizes":[],"default_left":[0,0,0],"id":96,"left_children":[1,-1,-1],"loss_changes":[1.23628095E-1,0E0,0E0],"parents":[2147483647,0,0],"right_children":[2,-1,-1],"split_conditions":[1.3338426E-1,-1.5436529E-2,1.5368386E-2],"split_indices":[5,0,0],"split_type":[0,0,0],"sum_hessian":[3.2112296E0,1.5987312E0,1.6124983E0],"tree_param":{"num_deleted":"0","num_feature":"9","num_nodes":"3","size_leaf_vector":"1"}},{"base_weights":[5.761025E-5,1.7082255E-2,-1.289575E-2],"categories":[],"categories_nodes":[],"categories_segments":[],"categories_sizes":[],"default_left":[0,0,0],"id":97,"left_children":[1,-1,-1],"loss_changes":[1.14717595E-1,0E0,0E0],"parents":[2147483647,0,0],"right_children":[2,-1,-1],"split_conditions":[9.974443E-2,1.7082255E-2,-1.289575E-2],"split_indices":[6,0,0],"split_type":[0,0,0],"sum_hessian":[3.2071476E0,1.2407866E0,1.966361E0],"tree_param":{"num_deleted":"0","num_feature":"9","num_nodes":"3","size_leaf_vector":"1"}},{"base_weights":[1.052812E-3,-1.4875399E-2,1.4973506E-2],"categories":[],"categories_nodes":[],"categories_segments":[],"categories_sizes":[],"default_left":[0,0,0],"id":98,"left_children":[1,-1,-1],"loss_changes":[1.158061E-1,0E0,0E0],"parents":[2147483647,0,0],"right_children":[2,-1,-1],"split_conditions":[1.3338426E-1,-1.4875399E-2,1.4973506E-2],"split_indices":[5,0,0],"split_type":[0,0,0],"sum_hessian":[3.1992476E0,1.593357E0,1.6058906E0],"tree_param":{"num_deleted":"0","num_feature":"9","num_nodes":"3","size_leaf_vector":"1"}},{"base_weights":[9.718295E-4,1.69808E-2,-1.2472425E-2],"categories":[],"categories_nodes":[],"categories_segments":[],"categories_sizes":[],"default_left":[0,0,0],"id":99,"left_children":[1,-1,-1],"loss_changes":[1.1021361E-1,0E0,0E0],"parents":[2147483647,0,0],"right_children":[2,-1,-1],"split_conditions":[1.6541362E0,1.69808E-2,-1.2472425E-2],"split_indices":[3,0,0],"split_type":[0,0,0],"sum_hessian":[3.1953743E0,1.2139047E0,1.9814696E0],"tree_param":{"num_deleted":"0","num_feature":"9","num_nodes":"3","size_leaf_vector":"1"}}]},"name":"gbtree"},"learner_model_param":{"base_score":"[5.416667E-1]","boost_from_average":"1","num_class":"0","num_feature":"9","num_target":"1"},"objective":{"name":"binary:logistic","reg_loss_param":{"scale_pos_weight":"1"}}},"version":[3,2,0]}